digraph Tree {
node [shape=box, fontname="helvetica"] ;
edge [fontname="helvetica"] ;
0 [label="x[4] <= 50.5\ngini = 0.453\nsamples = 462\nvalue = [302, 160]"] ;
1 [label="x[4] <= 30.5\ngini = 0.344\nsamples = 290\nvalue = [226, 64]"] ;
0 -> 1 [labeldistance=2.5, labelangle=45, headlabel="True"] ;
2 [label="x[1] <= 10.055\ngini = 0.137\nsamples = 108\nvalue = [100, 8]"] ;
1 -> 2 ;
3 [label="x[0] <= 107.0\ngini = 0.122\nsamples = 107\nvalue = [100, 7]"] ;
2 -> 3 ;
4 [label="x[4] <= 19.0\ngini = 0.5\nsamples = 4\nvalue = [2, 2]"] ;
3 -> 4 ;
5 [label="gini = 0.0\nsamples = 2\nvalue = [2, 0]"] ;
4 -> 5 ;
6 [label="gini = 0.0\nsamples = 2\nvalue = [0, 2]"] ;
4 -> 6 ;
7 [label="x[3] <= 19.53\ngini = 0.092\nsamples = 103\nvalue = [98, 5]"] ;
3 -> 7 ;
8 [label="x[4] <= 16.5\ngini = 0.444\nsamples = 9\nvalue = [6, 3]"] ;
7 -> 8 ;
9 [label="gini = 0.0\nsamples = 4\nvalue = [4, 0]"] ;
8 -> 9 ;
10 [label="x[3] <= 18.135\ngini = 0.48\nsamples = 5\nvalue = [2, 3]"] ;
8 -> 10 ;
11 [label="gini = 0.0\nsamples = 2\nvalue = [2, 0]"] ;
10 -> 11 ;
12 [label="gini = 0.0\nsamples = 3\nvalue = [0, 3]"] ;
10 -> 12 ;
13 [label="x[4] <= 29.5\ngini = 0.042\nsamples = 94\nvalue = [92, 2]"] ;
7 -> 13 ;
14 [label="x[4] <= 26.5\ngini = 0.023\nsamples = 87\nvalue = [86, 1]"] ;
13 -> 14 ;
15 [label="gini = 0.0\nsamples = 64\nvalue = [64, 0]"] ;
14 -> 15 ;
16 [label="x[3] <= 24.41\ngini = 0.083\nsamples = 23\nvalue = [22, 1]"] ;
14 -> 16 ;
17 [label="x[3] <= 23.895\ngini = 0.278\nsamples = 6\nvalue = [5, 1]"] ;
16 -> 17 ;
18 [label="gini = 0.0\nsamples = 5\nvalue = [5, 0]"] ;
17 -> 18 ;
19 [label="gini = 0.0\nsamples = 1\nvalue = [0, 1]"] ;
17 -> 19 ;
20 [label="gini = 0.0\nsamples = 17\nvalue = [17, 0]"] ;
16 -> 20 ;
21 [label="x[0] <= 130.0\ngini = 0.245\nsamples = 7\nvalue = [6, 1]"] ;
13 -> 21 ;
22 [label="gini = 0.0\nsamples = 4\nvalue = [4, 0]"] ;
21 -> 22 ;
23 [label="x[1] <= 3.565\ngini = 0.444\nsamples = 3\nvalue = [2, 1]"] ;
21 -> 23 ;
24 [label="gini = 0.0\nsamples = 2\nvalue = [2, 0]"] ;
23 -> 24 ;
25 [label="gini = 0.0\nsamples = 1\nvalue = [0, 1]"] ;
23 -> 25 ;
26 [label="gini = 0.0\nsamples = 1\nvalue = [0, 1]"] ;
2 -> 26 ;
27 [label="x[1] <= 3.34\ngini = 0.426\nsamples = 182\nvalue = [126, 56]"] ;
1 -> 27 ;
28 [label="x[3] <= 25.595\ngini = 0.26\nsamples = 39\nvalue = [33, 6]"] ;
27 -> 28 ;
29 [label="x[0] <= 149.0\ngini = 0.408\nsamples = 21\nvalue = [15, 6]"] ;
28 -> 29 ;
30 [label="x[1] <= 1.675\ngini = 0.332\nsamples = 19\nvalue = [15, 4]"] ;
29 -> 30 ;
31 [label="gini = 0.0\nsamples = 1\nvalue = [0, 1]"] ;
30 -> 31 ;
32 [label="x[3] <= 25.22\ngini = 0.278\nsamples = 18\nvalue = [15, 3]"] ;
30 -> 32 ;
33 [label="x[1] <= 3.17\ngini = 0.208\nsamples = 17\nvalue = [15, 2]"] ;
32 -> 33 ;
34 [label="gini = 0.0\nsamples = 10\nvalue = [10, 0]"] ;
33 -> 34 ;
35 [label="x[2] <= 0.5\ngini = 0.408\nsamples = 7\nvalue = [5, 2]"] ;
33 -> 35 ;
36 [label="x[0] <= 137.0\ngini = 0.278\nsamples = 6\nvalue = [5, 1]"] ;
35 -> 36 ;
37 [label="gini = 0.0\nsamples = 5\nvalue = [5, 0]"] ;
36 -> 37 ;
38 [label="gini = 0.0\nsamples = 1\nvalue = [0, 1]"] ;
36 -> 38 ;
39 [label="gini = 0.0\nsamples = 1\nvalue = [0, 1]"] ;
35 -> 39 ;
40 [label="gini = 0.0\nsamples = 1\nvalue = [0, 1]"] ;
32 -> 40 ;
41 [label="gini = 0.0\nsamples = 2\nvalue = [0, 2]"] ;
29 -> 41 ;
42 [label="gini = 0.0\nsamples = 18\nvalue = [18, 0]"] ;
28 -> 42 ;
43 [label="x[2] <= 0.5\ngini = 0.455\nsamples = 143\nvalue = [93, 50]"] ;
27 -> 43 ;
44 [label="x[0] <= 135.0\ngini = 0.393\nsamples = 82\nvalue = [60, 22]"] ;
43 -> 44 ;
45 [label="x[3] <= 21.095\ngini = 0.24\nsamples = 43\nvalue = [37, 6]"] ;
44 -> 45 ;
46 [label="x[0] <= 130.0\ngini = 0.444\nsamples = 3\nvalue = [1, 2]"] ;
45 -> 46 ;
47 [label="gini = 0.0\nsamples = 2\nvalue = [0, 2]"] ;
46 -> 47 ;
48 [label="gini = 0.0\nsamples = 1\nvalue = [1, 0]"] ;
46 -> 48 ;
49 [label="x[4] <= 37.5\ngini = 0.18\nsamples = 40\nvalue = [36, 4]"] ;
45 -> 49 ;
50 [label="gini = 0.0\nsamples = 15\nvalue = [15, 0]"] ;
49 -> 50 ;
51 [label="x[3] <= 25.06\ngini = 0.269\nsamples = 25\nvalue = [21, 4]"] ;
49 -> 51 ;
52 [label="gini = 0.0\nsamples = 6\nvalue = [6, 0]"] ;
51 -> 52 ;
53 [label="x[3] <= 25.23\ngini = 0.332\nsamples = 19\nvalue = [15, 4]"] ;
51 -> 53 ;
54 [label="gini = 0.0\nsamples = 1\nvalue = [0, 1]"] ;
53 -> 54 ;
55 [label="x[4] <= 38.5\ngini = 0.278\nsamples = 18\nvalue = [15, 3]"] ;
53 -> 55 ;
56 [label="x[1] <= 5.135\ngini = 0.5\nsamples = 2\nvalue = [1, 1]"] ;
55 -> 56 ;
57 [label="gini = 0.0\nsamples = 1\nvalue = [1, 0]"] ;
56 -> 57 ;
58 [label="gini = 0.0\nsamples = 1\nvalue = [0, 1]"] ;
56 -> 58 ;
59 [label="x[0] <= 125.0\ngini = 0.219\nsamples = 16\nvalue = [14, 2]"] ;
55 -> 59 ;
60 [label="gini = 0.0\nsamples = 8\nvalue = [8, 0]"] ;
59 -> 60 ;
61 [label="x[1] <= 6.28\ngini = 0.375\nsamples = 8\nvalue = [6, 2]"] ;
59 -> 61 ;
62 [label="x[3] <= 26.185\ngini = 0.245\nsamples = 7\nvalue = [6, 1]"] ;
61 -> 62 ;
63 [label="x[0] <= 130.5\ngini = 0.5\nsamples = 2\nvalue = [1, 1]"] ;
62 -> 63 ;
64 [label="gini = 0.0\nsamples = 1\nvalue = [1, 0]"] ;
63 -> 64 ;
65 [label="gini = 0.0\nsamples = 1\nvalue = [0, 1]"] ;
63 -> 65 ;
66 [label="gini = 0.0\nsamples = 5\nvalue = [5, 0]"] ;
62 -> 66 ;
67 [label="gini = 0.0\nsamples = 1\nvalue = [0, 1]"] ;
61 -> 67 ;
68 [label="x[0] <= 142.5\ngini = 0.484\nsamples = 39\nvalue = [23, 16]"] ;
44 -> 68 ;
69 [label="x[3] <= 21.76\ngini = 0.48\nsamples = 15\nvalue = [6, 9]"] ;
68 -> 69 ;
70 [label="gini = 0.0\nsamples = 2\nvalue = [2, 0]"] ;
69 -> 70 ;
71 [label="x[4] <= 47.0\ngini = 0.426\nsamples = 13\nvalue = [4, 9]"] ;
69 -> 71 ;
72 [label="x[1] <= 6.865\ngini = 0.298\nsamples = 11\nvalue = [2, 9]"] ;
71 -> 72 ;
73 [label="x[1] <= 4.245\ngini = 0.18\nsamples = 10\nvalue = [1, 9]"] ;
72 -> 73 ;
74 [label="gini = 0.0\nsamples = 5\nvalue = [0, 5]"] ;
73 -> 74 ;
75 [label="x[4] <= 36.0\ngini = 0.32\nsamples = 5\nvalue = [1, 4]"] ;
73 -> 75 ;
76 [label="gini = 0.0\nsamples = 4\nvalue = [0, 4]"] ;
75 -> 76 ;
77 [label="gini = 0.0\nsamples = 1\nvalue = [1, 0]"] ;
75 -> 77 ;
78 [label="gini = 0.0\nsamples = 1\nvalue = [1, 0]"] ;
72 -> 78 ;
79 [label="gini = 0.0\nsamples = 2\nvalue = [2, 0]"] ;
71 -> 79 ;
80 [label="x[3] <= 28.955\ngini = 0.413\nsamples = 24\nvalue = [17, 7]"] ;
68 -> 80 ;
81 [label="x[3] <= 27.975\ngini = 0.465\nsamples = 19\nvalue = [12, 7]"] ;
80 -> 81 ;
82 [label="x[4] <= 42.5\ngini = 0.375\nsamples = 16\nvalue = [12, 4]"] ;
81 -> 82 ;
83 [label="gini = 0.0\nsamples = 7\nvalue = [7, 0]"] ;
82 -> 83 ;
84 [label="x[3] <= 22.995\ngini = 0.494\nsamples = 9\nvalue = [5, 4]"] ;
82 -> 84 ;
85 [label="gini = 0.0\nsamples = 2\nvalue = [0, 2]"] ;
84 -> 85 ;
86 [label="x[4] <= 49.0\ngini = 0.408\nsamples = 7\nvalue = [5, 2]"] ;
84 -> 86 ;
87 [label="x[0] <= 147.0\ngini = 0.278\nsamples = 6\nvalue = [5, 1]"] ;
86 -> 87 ;
88 [label="gini = 0.0\nsamples = 1\nvalue = [0, 1]"] ;
87 -> 88 ;
89 [label="gini = 0.0\nsamples = 5\nvalue = [5, 0]"] ;
87 -> 89 ;
90 [label="gini = 0.0\nsamples = 1\nvalue = [0, 1]"] ;
86 -> 90 ;
91 [label="gini = 0.0\nsamples = 3\nvalue = [0, 3]"] ;
81 -> 91 ;
92 [label="gini = 0.0\nsamples = 5\nvalue = [5, 0]"] ;
80 -> 92 ;
93 [label="x[0] <= 117.0\ngini = 0.497\nsamples = 61\nvalue = [33, 28]"] ;
43 -> 93 ;
94 [label="x[0] <= 110.0\ngini = 0.278\nsamples = 6\nvalue = [1, 5]"] ;
93 -> 94 ;
95 [label="x[1] <= 4.66\ngini = 0.5\nsamples = 2\nvalue = [1, 1]"] ;
94 -> 95 ;
96 [label="gini = 0.0\nsamples = 1\nvalue = [0, 1]"] ;
95 -> 96 ;
97 [label="gini = 0.0\nsamples = 1\nvalue = [1, 0]"] ;
95 -> 97 ;
98 [label="gini = 0.0\nsamples = 4\nvalue = [0, 4]"] ;
94 -> 98 ;
99 [label="x[3] <= 21.86\ngini = 0.487\nsamples = 55\nvalue = [32, 23]"] ;
93 -> 99 ;
100 [label="gini = 0.0\nsamples = 2\nvalue = [0, 2]"] ;
99 -> 100 ;
101 [label="x[3] <= 22.89\ngini = 0.478\nsamples = 53\nvalue = [32, 21]"] ;
99 -> 101 ;
102 [label="gini = 0.0\nsamples = 5\nvalue = [5, 0]"] ;
101 -> 102 ;
103 [label="x[3] <= 23.24\ngini = 0.492\nsamples = 48\nvalue = [27, 21]"] ;
101 -> 103 ;
104 [label="gini = 0.0\nsamples = 2\nvalue = [0, 2]"] ;
103 -> 104 ;
105 [label="x[3] <= 24.26\ngini = 0.485\nsamples = 46\nvalue = [27, 19]"] ;
103 -> 105 ;
106 [label="gini = 0.0\nsamples = 5\nvalue = [5, 0]"] ;
105 -> 106 ;
107 [label="x[3] <= 26.0\ngini = 0.497\nsamples = 41\nvalue = [22, 19]"] ;
105 -> 107 ;
108 [label="x[0] <= 137.0\ngini = 0.42\nsamples = 10\nvalue = [3, 7]"] ;
107 -> 108 ;
109 [label="gini = 0.0\nsamples = 6\nvalue = [0, 6]"] ;
108 -> 109 ;
110 [label="x[1] <= 7.25\ngini = 0.375\nsamples = 4\nvalue = [3, 1]"] ;
108 -> 110 ;
111 [label="gini = 0.0\nsamples = 3\nvalue = [3, 0]"] ;
110 -> 111 ;
112 [label="gini = 0.0\nsamples = 1\nvalue = [0, 1]"] ;
110 -> 112 ;
113 [label="x[1] <= 4.725\ngini = 0.475\nsamples = 31\nvalue = [19, 12]"] ;
107 -> 113 ;
114 [label="gini = 0.0\nsamples = 6\nvalue = [6, 0]"] ;
113 -> 114 ;
115 [label="x[3] <= 31.215\ngini = 0.499\nsamples = 25\nvalue = [13, 12]"] ;
113 -> 115 ;
116 [label="x[1] <= 10.995\ngini = 0.457\nsamples = 17\nvalue = [11, 6]"] ;
115 -> 116 ;
117 [label="x[4] <= 40.0\ngini = 0.43\nsamples = 16\nvalue = [11, 5]"] ;
116 -> 117 ;
118 [label="gini = 0.0\nsamples = 4\nvalue = [4, 0]"] ;
117 -> 118 ;
119 [label="x[0] <= 134.0\ngini = 0.486\nsamples = 12\nvalue = [7, 5]"] ;
117 -> 119 ;
120 [label="x[4] <= 41.5\ngini = 0.32\nsamples = 5\nvalue = [4, 1]"] ;
119 -> 120 ;
121 [label="gini = 0.0\nsamples = 1\nvalue = [0, 1]"] ;
120 -> 121 ;
122 [label="gini = 0.0\nsamples = 4\nvalue = [4, 0]"] ;
120 -> 122 ;
123 [label="x[3] <= 28.785\ngini = 0.49\nsamples = 7\nvalue = [3, 4]"] ;
119 -> 123 ;
124 [label="gini = 0.0\nsamples = 3\nvalue = [0, 3]"] ;
123 -> 124 ;
125 [label="x[4] <= 48.0\ngini = 0.375\nsamples = 4\nvalue = [3, 1]"] ;
123 -> 125 ;
126 [label="gini = 0.0\nsamples = 3\nvalue = [3, 0]"] ;
125 -> 126 ;
127 [label="gini = 0.0\nsamples = 1\nvalue = [0, 1]"] ;
125 -> 127 ;
128 [label="gini = 0.0\nsamples = 1\nvalue = [0, 1]"] ;
116 -> 128 ;
129 [label="x[1] <= 7.08\ngini = 0.375\nsamples = 8\nvalue = [2, 6]"] ;
115 -> 129 ;
130 [label="gini = 0.0\nsamples = 6\nvalue = [0, 6]"] ;
129 -> 130 ;
131 [label="gini = 0.0\nsamples = 2\nvalue = [2, 0]"] ;
129 -> 131 ;
132 [label="x[2] <= 0.5\ngini = 0.493\nsamples = 172\nvalue = [76, 96]"] ;
0 -> 132 [labeldistance=2.5, labelangle=-45, headlabel="False"] ;
133 [label="x[1] <= 10.34\ngini = 0.481\nsamples = 82\nvalue = [49, 33]"] ;
132 -> 133 ;
134 [label="x[1] <= 2.445\ngini = 0.471\nsamples = 79\nvalue = [49, 30]"] ;
133 -> 134 ;
135 [label="gini = 0.0\nsamples = 6\nvalue = [6, 0]"] ;
134 -> 135 ;
136 [label="x[1] <= 5.49\ngini = 0.484\nsamples = 73\nvalue = [43, 30]"] ;
134 -> 136 ;
137 [label="x[0] <= 181.0\ngini = 0.5\nsamples = 47\nvalue = [24, 23]"] ;
136 -> 137 ;
138 [label="x[0] <= 156.0\ngini = 0.496\nsamples = 44\nvalue = [24, 20]"] ;
137 -> 138 ;
139 [label="x[3] <= 28.86\ngini = 0.489\nsamples = 33\nvalue = [14, 19]"] ;
138 -> 139 ;
140 [label="x[1] <= 4.975\ngini = 0.499\nsamples = 27\nvalue = [14, 13]"] ;
139 -> 140 ;
141 [label="x[0] <= 146.0\ngini = 0.476\nsamples = 23\nvalue = [14, 9]"] ;
140 -> 141 ;
142 [label="x[3] <= 19.42\ngini = 0.444\nsamples = 21\nvalue = [14, 7]"] ;
141 -> 142 ;
143 [label="gini = 0.0\nsamples = 2\nvalue = [0, 2]"] ;
142 -> 143 ;
144 [label="x[0] <= 110.0\ngini = 0.388\nsamples = 19\nvalue = [14, 5]"] ;
142 -> 144 ;
145 [label="x[1] <= 4.62\ngini = 0.444\nsamples = 3\nvalue = [1, 2]"] ;
144 -> 145 ;
146 [label="gini = 0.0\nsamples = 2\nvalue = [0, 2]"] ;
145 -> 146 ;
147 [label="gini = 0.0\nsamples = 1\nvalue = [1, 0]"] ;
145 -> 147 ;
148 [label="x[3] <= 24.465\ngini = 0.305\nsamples = 16\nvalue = [13, 3]"] ;
144 -> 148 ;
149 [label="gini = 0.0\nsamples = 6\nvalue = [6, 0]"] ;
148 -> 149 ;
150 [label="x[3] <= 24.795\ngini = 0.42\nsamples = 10\nvalue = [7, 3]"] ;
148 -> 150 ;
151 [label="gini = 0.0\nsamples = 1\nvalue = [0, 1]"] ;
150 -> 151 ;
152 [label="x[4] <= 53.5\ngini = 0.346\nsamples = 9\nvalue = [7, 2]"] ;
150 -> 152 ;
153 [label="x[3] <= 26.21\ngini = 0.5\nsamples = 4\nvalue = [2, 2]"] ;
152 -> 153 ;
154 [label="gini = 0.0\nsamples = 2\nvalue = [2, 0]"] ;
153 -> 154 ;
155 [label="gini = 0.0\nsamples = 2\nvalue = [0, 2]"] ;
153 -> 155 ;
156 [label="gini = 0.0\nsamples = 5\nvalue = [5, 0]"] ;
152 -> 156 ;
157 [label="gini = 0.0\nsamples = 2\nvalue = [0, 2]"] ;
141 -> 157 ;
158 [label="gini = 0.0\nsamples = 4\nvalue = [0, 4]"] ;
140 -> 158 ;
159 [label="gini = 0.0\nsamples = 6\nvalue = [0, 6]"] ;
139 -> 159 ;
160 [label="x[3] <= 21.885\ngini = 0.165\nsamples = 11\nvalue = [10, 1]"] ;
138 -> 160 ;
161 [label="gini = 0.0\nsamples = 1\nvalue = [0, 1]"] ;
160 -> 161 ;
162 [label="gini = 0.0\nsamples = 10\nvalue = [10, 0]"] ;
160 -> 162 ;
163 [label="gini = 0.0\nsamples = 3\nvalue = [0, 3]"] ;
137 -> 163 ;
164 [label="x[1] <= 6.355\ngini = 0.393\nsamples = 26\nvalue = [19, 7]"] ;
136 -> 164 ;
165 [label="x[3] <= 32.54\ngini = 0.18\nsamples = 10\nvalue = [9, 1]"] ;
164 -> 165 ;
166 [label="gini = 0.0\nsamples = 8\nvalue = [8, 0]"] ;
165 -> 166 ;
167 [label="x[3] <= 34.295\ngini = 0.5\nsamples = 2\nvalue = [1, 1]"] ;
165 -> 167 ;
168 [label="gini = 0.0\nsamples = 1\nvalue = [0, 1]"] ;
167 -> 168 ;
169 [label="gini = 0.0\nsamples = 1\nvalue = [1, 0]"] ;
167 -> 169 ;
170 [label="x[1] <= 6.395\ngini = 0.469\nsamples = 16\nvalue = [10, 6]"] ;
164 -> 170 ;
171 [label="gini = 0.0\nsamples = 1\nvalue = [0, 1]"] ;
170 -> 171 ;
172 [label="x[3] <= 24.475\ngini = 0.444\nsamples = 15\nvalue = [10, 5]"] ;
170 -> 172 ;
173 [label="gini = 0.0\nsamples = 1\nvalue = [0, 1]"] ;
172 -> 173 ;
174 [label="x[4] <= 59.5\ngini = 0.408\nsamples = 14\nvalue = [10, 4]"] ;
172 -> 174 ;
175 [label="gini = 0.0\nsamples = 5\nvalue = [5, 0]"] ;
174 -> 175 ;
176 [label="x[3] <= 29.315\ngini = 0.494\nsamples = 9\nvalue = [5, 4]"] ;
174 -> 176 ;
177 [label="x[1] <= 8.955\ngini = 0.408\nsamples = 7\nvalue = [5, 2]"] ;
176 -> 177 ;
178 [label="x[1] <= 6.78\ngini = 0.278\nsamples = 6\nvalue = [5, 1]"] ;
177 -> 178 ;
179 [label="x[3] <= 28.475\ngini = 0.5\nsamples = 2\nvalue = [1, 1]"] ;
178 -> 179 ;
180 [label="gini = 0.0\nsamples = 1\nvalue = [0, 1]"] ;
179 -> 180 ;
181 [label="gini = 0.0\nsamples = 1\nvalue = [1, 0]"] ;
179 -> 181 ;
182 [label="gini = 0.0\nsamples = 4\nvalue = [4, 0]"] ;
178 -> 182 ;
183 [label="gini = 0.0\nsamples = 1\nvalue = [0, 1]"] ;
177 -> 183 ;
184 [label="gini = 0.0\nsamples = 2\nvalue = [0, 2]"] ;
176 -> 184 ;
185 [label="gini = 0.0\nsamples = 3\nvalue = [0, 3]"] ;
133 -> 185 ;
186 [label="x[1] <= 4.99\ngini = 0.42\nsamples = 90\nvalue = [27, 63]"] ;
132 -> 186 ;
187 [label="x[0] <= 129.0\ngini = 0.497\nsamples = 39\nvalue = [18, 21]"] ;
186 -> 187 ;
188 [label="x[0] <= 116.0\ngini = 0.346\nsamples = 9\nvalue = [7, 2]"] ;
187 -> 188 ;
189 [label="x[1] <= 2.825\ngini = 0.444\nsamples = 3\nvalue = [1, 2]"] ;
188 -> 189 ;
190 [label="gini = 0.0\nsamples = 1\nvalue = [1, 0]"] ;
189 -> 190 ;
191 [label="gini = 0.0\nsamples = 2\nvalue = [0, 2]"] ;
189 -> 191 ;
192 [label="gini = 0.0\nsamples = 6\nvalue = [6, 0]"] ;
188 -> 192 ;
193 [label="x[1] <= 3.99\ngini = 0.464\nsamples = 30\nvalue = [11, 19]"] ;
187 -> 193 ;
194 [label="x[1] <= 2.44\ngini = 0.245\nsamples = 14\nvalue = [2, 12]"] ;
193 -> 194 ;
195 [label="gini = 0.0\nsamples = 2\nvalue = [2, 0]"] ;
194 -> 195 ;
196 [label="gini = 0.0\nsamples = 12\nvalue = [0, 12]"] ;
194 -> 196 ;
197 [label="x[0] <= 135.0\ngini = 0.492\nsamples = 16\nvalue = [9, 7]"] ;
193 -> 197 ;
198 [label="gini = 0.0\nsamples = 3\nvalue = [0, 3]"] ;
197 -> 198 ;
199 [label="x[1] <= 4.345\ngini = 0.426\nsamples = 13\nvalue = [9, 4]"] ;
197 -> 199 ;
200 [label="gini = 0.0\nsamples = 6\nvalue = [6, 0]"] ;
199 -> 200 ;
201 [label="x[1] <= 4.7\ngini = 0.49\nsamples = 7\nvalue = [3, 4]"] ;
199 -> 201 ;
202 [label="gini = 0.0\nsamples = 3\nvalue = [0, 3]"] ;
201 -> 202 ;
203 [label="x[4] <= 55.0\ngini = 0.375\nsamples = 4\nvalue = [3, 1]"] ;
201 -> 203 ;
204 [label="gini = 0.0\nsamples = 1\nvalue = [0, 1]"] ;
203 -> 204 ;
205 [label="gini = 0.0\nsamples = 3\nvalue = [3, 0]"] ;
203 -> 205 ;
206 [label="x[0] <= 121.5\ngini = 0.291\nsamples = 51\nvalue = [9, 42]"] ;
186 -> 206 ;
207 [label="x[1] <= 6.345\ngini = 0.444\nsamples = 3\nvalue = [2, 1]"] ;
206 -> 207 ;
208 [label="gini = 0.0\nsamples = 2\nvalue = [2, 0]"] ;
207 -> 208 ;
209 [label="gini = 0.0\nsamples = 1\nvalue = [0, 1]"] ;
207 -> 209 ;
210 [label="x[3] <= 38.875\ngini = 0.249\nsamples = 48\nvalue = [7, 41]"] ;
206 -> 210 ;
211 [label="x[4] <= 59.5\ngini = 0.223\nsamples = 47\nvalue = [6, 41]"] ;
210 -> 211 ;
212 [label="x[1] <= 5.555\ngini = 0.114\nsamples = 33\nvalue = [2, 31]"] ;
211 -> 212 ;
213 [label="x[0] <= 147.0\ngini = 0.346\nsamples = 9\nvalue = [2, 7]"] ;
212 -> 213 ;
214 [label="x[4] <= 57.0\ngini = 0.444\nsamples = 3\nvalue = [2, 1]"] ;
213 -> 214 ;
215 [label="gini = 0.0\nsamples = 2\nvalue = [2, 0]"] ;
214 -> 215 ;
216 [label="gini = 0.0\nsamples = 1\nvalue = [0, 1]"] ;
214 -> 216 ;
217 [label="gini = 0.0\nsamples = 6\nvalue = [0, 6]"] ;
213 -> 217 ;
218 [label="gini = 0.0\nsamples = 24\nvalue = [0, 24]"] ;
212 -> 218 ;
219 [label="x[1] <= 6.575\ngini = 0.408\nsamples = 14\nvalue = [4, 10]"] ;
211 -> 219 ;
220 [label="gini = 0.0\nsamples = 5\nvalue = [0, 5]"] ;
219 -> 220 ;
221 [label="x[1] <= 6.82\ngini = 0.494\nsamples = 9\nvalue = [4, 5]"] ;
219 -> 221 ;
222 [label="gini = 0.0\nsamples = 3\nvalue = [3, 0]"] ;
221 -> 222 ;
223 [label="x[3] <= 30.035\ngini = 0.278\nsamples = 6\nvalue = [1, 5]"] ;
221 -> 223 ;
224 [label="gini = 0.0\nsamples = 5\nvalue = [0, 5]"] ;
223 -> 224 ;
225 [label="gini = 0.0\nsamples = 1\nvalue = [1, 0]"] ;
223 -> 225 ;
226 [label="gini = 0.0\nsamples = 1\nvalue = [1, 0]"] ;
210 -> 226 ;
}